<?xml version="1.0"?>
<MethodSetup Method="MLP::MLP">
  <GeneralInfo>
    <Info name="TMVA Release" value="4.1.2 [262402]"/>
    <Info name="ROOT Release" value="5.32/00 [335872]"/>
    <Info name="Creator" value="kkousour"/>
    <Info name="Date" value="Thu Apr 25 16:26:44 2013"/>
    <Info name="Host" value="Linux lxbuild168.cern.ch 2.6.18-308.16.1.el5 #1 SMP Thu Oct 4 14:02:28 CEST 2012 x86_64 x86_64 x86_64 GNU/Linux"/>
    <Info name="Dir" value="/afs/cern.ch/work/k/kkousour/private/CMG_V5_13_0/CMGTools/CMSSW_5_3_7_patch4/src/KKousour/CMGAnalysis/test/scripts"/>
    <Info name="Training events" value="32341"/>
    <Info name="TrainingTime" value="5.88407144e+03"/>
    <Info name="AnalysisType" value="Regression"/>
  </GeneralInfo>
  <Options>
    <Option name="NCycles" modified="Yes">700</Option>
    <Option name="HiddenLayers" modified="Yes">N,N-1</Option>
    <Option name="NeuronType" modified="No">sigmoid</Option>
    <Option name="RandomSeed" modified="No">1</Option>
    <Option name="EstimatorType" modified="No">MSE</Option>
    <Option name="NeuronInputType" modified="No">sum</Option>
    <Option name="V" modified="No">False</Option>
    <Option name="VerbosityLevel" modified="No">Default</Option>
    <Option name="VarTransform" modified="Yes">Norm</Option>
    <Option name="H" modified="No">False</Option>
    <Option name="CreateMVAPdfs" modified="No">False</Option>
    <Option name="IgnoreNegWeightsInTraining" modified="No">False</Option>
    <Option name="TrainingMethod" modified="Yes">BFGS</Option>
    <Option name="LearningRate" modified="No">2.000000e-02</Option>
    <Option name="DecayRate" modified="No">1.000000e-02</Option>
    <Option name="TestRate" modified="Yes">5</Option>
    <Option name="EpochMonitoring" modified="No">False</Option>
    <Option name="Sampling" modified="No">1.000000e+00</Option>
    <Option name="SamplingEpoch" modified="No">1.000000e+00</Option>
    <Option name="SamplingImportance" modified="No">1.000000e+00</Option>
    <Option name="SamplingTraining" modified="No">True</Option>
    <Option name="SamplingTesting" modified="No">False</Option>
    <Option name="ResetStep" modified="No">50</Option>
    <Option name="Tau" modified="No">3.000000e+00</Option>
    <Option name="BPMode" modified="No">sequential</Option>
    <Option name="BatchSize" modified="No">-1</Option>
    <Option name="ConvergenceImprove" modified="No">1.000000e-30</Option>
    <Option name="ConvergenceTests" modified="No">-1</Option>
    <Option name="UseRegulator" modified="No">False</Option>
    <Option name="UpdateLimit" modified="No">10000</Option>
    <Option name="CalculateErrors" modified="No">False</Option>
    <Option name="WeightRange" modified="No">1.000000e+00</Option>
  </Options>
  <Variables NVar="15">
    <Variable VarIndex="0" Expression="jetBtag" Label="jetBtag" Title="jetBtag" Unit="" Internal="jetBtag" Type="F" Min="-1.00000000e+01" Max="1.00000000e+00"/>
    <Variable VarIndex="1" Expression="jetPt" Label="jetPt" Title="jetPt" Unit="" Internal="jetPt" Type="F" Min="2.00030212e+01" Max="6.16914368e+02"/>
    <Variable VarIndex="2" Expression="jetEta" Label="jetEta" Title="jetEta" Unit="" Internal="jetEta" Type="F" Min="-3.72825432e+00" Max="4.07224035e+00"/>
    <Variable VarIndex="3" Expression="jetMetPhi" Label="jetMetPhi" Title="jetMetPhi" Unit="" Internal="jetMetPhi" Type="F" Min="1.94787979e-04" Max="3.14153004e+00"/>
    <Variable VarIndex="4" Expression="jetChf" Label="jetChf" Title="jetChf" Unit="" Internal="jetChf" Type="F" Min="0.00000000e+00" Max="9.90961194e-01"/>
    <Variable VarIndex="5" Expression="jetPhf" Label="jetPhf" Title="jetPhf" Unit="" Internal="jetPhf" Type="F" Min="0.00000000e+00" Max="8.81027222e-01"/>
    <Variable VarIndex="6" Expression="jetNhf" Label="jetNhf" Title="jetNhf" Unit="" Internal="jetNhf" Type="F" Min="0.00000000e+00" Max="9.38605309e-01"/>
    <Variable VarIndex="7" Expression="jetElf" Label="jetElf" Title="jetElf" Unit="" Internal="jetElf" Type="F" Min="0.00000000e+00" Max="9.40415323e-01"/>
    <Variable VarIndex="8" Expression="jetMuf" Label="jetMuf" Title="jetMuf" Unit="" Internal="jetMuf" Type="F" Min="0.00000000e+00" Max="7.62628019e-01"/>
    <Variable VarIndex="9" Expression="jetPtD" Label="jetPtD" Title="jetPtD" Unit="" Internal="jetPtD" Type="F" Min="1.32837147e-01" Max="9.45553005e-01"/>
    <Variable VarIndex="10" Expression="jetVtxPt" Label="jetVtxPt" Title="jetVtxPt" Unit="" Internal="jetVtxPt" Type="F" Min="0.00000000e+00" Max="1.94132980e+02"/>
    <Variable VarIndex="11" Expression="jetVtx3dL" Label="jetVtx3dL" Title="jetVtx3dL" Unit="" Internal="jetVtx3dL" Type="F" Min="0.00000000e+00" Max="1.38171911e+01"/>
    <Variable VarIndex="12" Expression="jetVtx3deL" Label="jetVtx3deL" Title="jetVtx3deL" Unit="" Internal="jetVtx3deL" Type="F" Min="0.00000000e+00" Max="1.81649768e+00"/>
    <Variable VarIndex="13" Expression="met" Label="met" Title="met" Unit="" Internal="met" Type="F" Min="2.39654750e-01" Max="2.35405441e+02"/>
    <Variable VarIndex="14" Expression="rho" Label="rho" Title="rho" Unit="" Internal="rho" Type="F" Min="7.46963382e-01" Max="5.00294952e+01"/>
  </Variables>
  <Spectators NSpec="0"/>
  <Classes NClass="1">
    <Class Name="Regression" Index="0"/>
  </Classes>
  <Targets NTrgt="1">
    <Target TargetIndex="0" Expression="jetGenPt" Label="jetGenPt" Title="jetGenPt" Unit="" Internal="jetGenPt" Type="F" Min="3.04178309e+00" Max="5.87534790e+02"/>
  </Targets>
  <Transformations NTransformations="1">
    <Transform Name="Normalize">
      <Selection>
        <Input NInputs="16">
          <Input Type="Variable" Label="jetBtag" Expression="jetBtag"/>
          <Input Type="Variable" Label="jetPt" Expression="jetPt"/>
          <Input Type="Variable" Label="jetEta" Expression="jetEta"/>
          <Input Type="Variable" Label="jetMetPhi" Expression="jetMetPhi"/>
          <Input Type="Variable" Label="jetChf" Expression="jetChf"/>
          <Input Type="Variable" Label="jetPhf" Expression="jetPhf"/>
          <Input Type="Variable" Label="jetNhf" Expression="jetNhf"/>
          <Input Type="Variable" Label="jetElf" Expression="jetElf"/>
          <Input Type="Variable" Label="jetMuf" Expression="jetMuf"/>
          <Input Type="Variable" Label="jetPtD" Expression="jetPtD"/>
          <Input Type="Variable" Label="jetVtxPt" Expression="jetVtxPt"/>
          <Input Type="Variable" Label="jetVtx3dL" Expression="jetVtx3dL"/>
          <Input Type="Variable" Label="jetVtx3deL" Expression="jetVtx3deL"/>
          <Input Type="Variable" Label="met" Expression="met"/>
          <Input Type="Variable" Label="rho" Expression="rho"/>
          <Input Type="Target" Label="jetGenPt" Expression="jetGenPt"/>
        </Input>
        <Output NOutputs="16">
          <Output Type="Variable" Label="jetBtag" Expression="jetBtag"/>
          <Output Type="Variable" Label="jetPt" Expression="jetPt"/>
          <Output Type="Variable" Label="jetEta" Expression="jetEta"/>
          <Output Type="Variable" Label="jetMetPhi" Expression="jetMetPhi"/>
          <Output Type="Variable" Label="jetChf" Expression="jetChf"/>
          <Output Type="Variable" Label="jetPhf" Expression="jetPhf"/>
          <Output Type="Variable" Label="jetNhf" Expression="jetNhf"/>
          <Output Type="Variable" Label="jetElf" Expression="jetElf"/>
          <Output Type="Variable" Label="jetMuf" Expression="jetMuf"/>
          <Output Type="Variable" Label="jetPtD" Expression="jetPtD"/>
          <Output Type="Variable" Label="jetVtxPt" Expression="jetVtxPt"/>
          <Output Type="Variable" Label="jetVtx3dL" Expression="jetVtx3dL"/>
          <Output Type="Variable" Label="jetVtx3deL" Expression="jetVtx3deL"/>
          <Output Type="Variable" Label="met" Expression="met"/>
          <Output Type="Variable" Label="rho" Expression="rho"/>
          <Output Type="Target" Label="jetGenPt" Expression="jetGenPt"/>
        </Output>
      </Selection>
      <Class ClassIndex="0">
        <Ranges>
          <Range Index="0" Min="-1.0000000000000000e+01" Max="1.0000000000000000e+00"/>
          <Range Index="1" Min="2.0003021240234375e+01" Max="6.1691436767578125e+02"/>
          <Range Index="2" Min="-3.7282543182373047e+00" Max="4.0722403526306152e+00"/>
          <Range Index="3" Min="1.9478797912597656e-04" Max="3.1415300369262695e+00"/>
          <Range Index="4" Min="0.0000000000000000e+00" Max="9.9096119403839111e-01"/>
          <Range Index="5" Min="0.0000000000000000e+00" Max="8.8102722167968750e-01"/>
          <Range Index="6" Min="0.0000000000000000e+00" Max="9.3860530853271484e-01"/>
          <Range Index="7" Min="0.0000000000000000e+00" Max="9.4041532278060913e-01"/>
          <Range Index="8" Min="0.0000000000000000e+00" Max="7.6262801885604858e-01"/>
          <Range Index="9" Min="1.3283714652061462e-01" Max="9.4555300474166870e-01"/>
          <Range Index="10" Min="0.0000000000000000e+00" Max="1.9413298034667969e+02"/>
          <Range Index="11" Min="0.0000000000000000e+00" Max="1.3817191123962402e+01"/>
          <Range Index="12" Min="0.0000000000000000e+00" Max="1.8164976835250854e+00"/>
          <Range Index="13" Min="2.3965474963188171e-01" Max="2.3540544128417969e+02"/>
          <Range Index="14" Min="7.4696338176727295e-01" Max="5.0029495239257812e+01"/>
          <Range Index="15" Min="3.0417830944061279e+00" Max="5.8753479003906250e+02"/>
        </Ranges>
      </Class>
    </Transform>
  </Transformations>
  <MVAPdfs/>
  <Weights>
    <Layout NLayers="4">
      <Layer Index="0" NNeurons="16">
        <Neuron NSynapses="15">
          5.5761625092145967e-02 1.8618935656511137e+00 5.4603986461061460e-01 2.1704423858580673e+00 -1.2571970319197072e+00 -2.1144536392655335e+00 3.1023984271907812e-01 2.0711516094883669e+00 -2.0465688071813766e+00 -9.0185894011500656e-01 -2.2458186139233356e+00 -3.2584505682878007e-01 -8.8381064915290986e-01 1.8436592707445115e-02 -2.5419136948750788e-02 
        </Neuron>
        <Neuron NSynapses="15">
          1.7151057019462726e-01 -6.6077390403770442e-01 2.2081094923578477e+00 -6.9276242294081491e-01 1.9224619027403289e+00 5.9881997195795633e-01 -2.6079264064722540e+00 8.1928873770121335e-01 4.8337335243204760e-01 -2.8406864015478512e+00 3.0659556052537307e-01 2.9711484713553120e+00 -1.2914096855759050e+00 -2.2658761264060305e+00 1.0266159742447007e+00 
        </Neuron>
        <Neuron NSynapses="15">
          1.9472057416165295e-01 1.4572850101270407e+00 1.2597040166564558e-01 5.5996432466634993e-01 -3.0437757928557407e-01 -7.1097359703746577e-01 6.3987622780104590e-03 1.2453679598484209e+00 3.9611560191853940e-02 2.6978881536625806e-02 4.1693509091554420e-01 -2.1234477820500394e-01 5.1933228332873660e-01 8.9120703664409537e-02 -1.2302464112808242e-01 
        </Neuron>
        <Neuron NSynapses="15">
          -5.4053464896717129e-01 5.5699811541450417e-01 -6.8832010881407849e-02 6.4251092092122442e-01 7.9175107274213419e-01 6.2432618909732229e-01 3.9634806807043477e-01 -6.7123381793706149e-01 8.0009855362461169e-01 -1.3302110584287541e+00 -4.4279986505519070e-01 -1.4990574360408702e+00 -2.3108060623108013e+00 1.1305362891524097e-01 -4.3480175777865410e-01 
        </Neuron>
        <Neuron NSynapses="15">
          -8.4667444388408486e-01 1.3242429079816118e-01 -7.1192626894450897e-02 4.2954473972082852e-01 2.6983508264575018e-01 2.6369929233890527e-01 -7.4146938441994131e-02 -1.3148780913589040e+00 9.1734547931260568e-01 -8.0086452927430007e-01 -3.6130836540823674e-01 -2.2868157478675832e-01 6.7903276621883357e-01 5.1013415996391442e-01 4.1835442743641971e-01 
        </Neuron>
        <Neuron NSynapses="15">
          1.6814728809587912e-02 -2.0482624667083082e+00 -3.2236442978492175e-01 6.5807167474673944e-01 2.7557001572186135e-01 1.3392397694564586e+00 -1.7179781765669597e-01 1.0378509164502667e+00 -1.7924139571129480e-01 -1.2521931847667074e+00 4.8142637915404174e-01 -4.6083476043096139e-01 -3.8701058021764861e-01 2.1856998711188727e-01 -1.3436468364281215e-01 
        </Neuron>
        <Neuron NSynapses="15">
          -9.3482045641549161e-01 -4.0953690358526285e-01 -1.1810217547928410e-01 -2.0617025546218652e+00 -7.0168605020442043e-01 2.0857728802445878e+00 -6.0370655961467301e-01 -1.3352800788479451e+00 -1.0644173795745386e+00 -1.1996261539399727e-01 -1.3807290554982927e+00 5.7092276024080818e-02 1.6656282549596038e+00 8.1418523655185193e-01 -1.0826244361234221e+00 
        </Neuron>
        <Neuron NSynapses="15">
          1.1350261270712902e+00 -1.3238654603427802e+00 -4.9925047180438009e-01 -8.0581867462415457e-01 6.0782537852436161e-02 -9.8864980935925428e-01 -4.9084598345550107e-01 -1.4965370740497402e-01 2.8380839534519969e-01 -4.7837367557513089e-01 1.5626543154292296e+00 1.3815801845267733e-01 -8.9473610227030465e-01 7.2081025729664724e-02 -9.4575568231474572e-01 
        </Neuron>
        <Neuron NSynapses="15">
          -2.8376407857106059e+00 -2.4199603952263790e-01 -7.0130740801526348e-01 9.2419771382344074e-01 3.1428379609660967e-01 7.5153516197102876e-01 -6.9058458986986471e-01 -5.7690337752280807e-01 -1.6597363847839237e+00 1.0035445721892968e+00 1.0764500646838611e+00 6.8845356670625490e-01 7.3406146558116392e-01 -1.4013718930655084e+00 -1.0784220128355977e+00 
        </Neuron>
        <Neuron NSynapses="15">
          1.3739496120397554e+00 1.6987551652131938e+00 -1.4907521370414825e-01 1.4324283004430788e-01 -1.0184102046705615e-01 1.2300177076851218e+00 7.8244058331212937e-02 -1.3699198020894361e+00 -2.0050538526596420e-01 2.6221788857955058e-01 1.4840674903686202e+00 -2.3732827799731523e-01 -1.0732243327000088e+00 -8.4093750051129601e-01 -3.7137710456563761e-01 
        </Neuron>
        <Neuron NSynapses="15">
          -7.2426503793679187e-01 2.4107543452708638e-01 6.3994265329160627e-01 -1.3397702629468558e+00 -5.2140872517523107e-01 1.0989734206711603e+00 2.9948023057647843e-01 -3.0502993237863690e-02 1.1630152186049005e+00 -7.4395325300795068e-01 2.0080973946027818e+00 -4.7140056319586265e-01 4.7307357151396845e-01 5.3051797020840186e-01 3.4854111009587541e-01 
        </Neuron>
        <Neuron NSynapses="15">
          -1.9915971238513151e-02 -1.0277790136503704e+00 3.5209104873643211e-05 -1.5511954591991177e+00 -3.2436587932546462e-01 2.1662878071528398e+00 -2.2074408340559903e-01 -5.1061350913375791e-01 4.4371931560421973e-01 1.1741902403314590e+00 -1.1334972366559097e+00 2.0121223478518352e-01 -8.1795025679219702e-02 -2.0392815162260217e-01 -1.1388089185310479e+00 
        </Neuron>
        <Neuron NSynapses="15">
          -8.2614060400181133e-01 7.3694614288108928e-01 2.2458873765703183e-01 -2.3633481439276278e+00 -3.8979909174259553e-01 1.2766648499557773e-01 1.7151952473889059e-01 1.4053381803363976e+00 2.2378067540932833e-01 -7.9702421356975139e-01 -1.5161847971943149e-01 6.3698152403186858e-01 1.6135115788290439e+00 -5.2761556159687785e-02 8.1985265354996228e-02 
        </Neuron>
        <Neuron NSynapses="15">
          -1.9585320040094265e+00 -2.3018877898153334e+00 1.1474680556288710e+00 -2.4775758692191546e-01 -2.7648457513167188e+00 -5.5825945727547538e-02 -1.8438539359102751e-02 -2.2586732181130631e-01 -1.3411866619604116e+00 2.0215666150944065e+00 1.5377600599797094e+00 1.6561397523582766e+00 -5.4864090987660807e-01 5.2292218150174241e-01 3.1026892838968170e+00 
        </Neuron>
        <Neuron NSynapses="15">
          1.1607389493879239e-01 -3.2852717700547701e-01 6.3543216574306977e-02 -1.2253174506272753e+00 1.2490053167872202e+00 1.5895001536950528e+00 3.5789627529668372e-01 3.6864784493563907e-01 1.2300406153230554e+00 -4.2086365443861834e-01 -9.4253462109838415e-01 -1.9196675777777739e-01 -5.9154938130338985e-01 -3.2296038339109444e-03 5.7968920790026013e-01 
        </Neuron>
        <Neuron NSynapses="15">
          -8.1236821336149490e-01 1.1823800563884466e+00 2.1463086989343245e+00 -8.9532784353238981e-01 5.6531014083338194e-01 3.0317691887373333e-01 -2.2064336911512537e+00 1.4829360271966332e+00 -1.3118765599069599e+00 1.4040555134917294e+00 -2.7018192470693538e+00 1.0415409436239897e-01 -9.0378902467103372e-01 -3.0211487039353901e+00 -9.1997383153274426e-01 
        </Neuron>
      </Layer>
      <Layer Index="1" NNeurons="16">
        <Neuron NSynapses="14">
          -1.3451024181737643e+00 -4.8425874260209945e-01 -1.8746661502543502e+00 -1.6609185853100503e+00 -1.5902624864719452e+00 -1.1482409004292178e-01 -1.0818526331188210e+00 -2.1211078748619787e+00 1.6857608086578311e+00 -5.8568066292064058e-01 2.7686036207181175e-01 -1.0084976813438755e+00 5.6869181509091238e-01 1.6074960287659761e+00 
        </Neuron>
        <Neuron NSynapses="14">
          1.3708149575491890e+00 -1.0006519238779314e+00 -1.4789740541311784e+00 -1.0907971584980720e+00 -4.8898944977978487e-01 -2.0302099868242007e+00 -4.7594813206490394e-02 -2.1988125852414461e-01 2.3666102889263749e+00 1.8800625060723641e-01 -2.9418583945918797e-01 -6.6682557375666973e-01 -1.6545511407461564e+00 1.2466765562502005e+00 
        </Neuron>
        <Neuron NSynapses="14">
          1.5221372524556989e+00 -5.5634998980425565e-01 -1.0664869394336853e+00 5.6065878758650112e-01 1.2482191741345618e+00 6.3516599425384912e-01 -1.4333180899136855e-01 -5.6206344592940582e-01 1.2272284380361300e+00 1.4299677620845415e+00 1.5878361764580038e+00 -1.2132095454780487e+00 8.0837209668799426e-02 -9.1236007203779668e-01 
        </Neuron>
        <Neuron NSynapses="14">
          -8.9462775463872179e-01 -6.2645564708245360e-01 -1.7416686362091094e+00 -1.4871378135755779e+00 -1.0232067276367263e+00 1.4337365550209042e+00 -1.8709984042348342e+00 1.0718598386718936e+00 -1.1199198849069367e+00 1.5231090215247101e+00 -9.8608250074817694e-01 -2.4305080700702908e-01 9.5909588153316516e-01 -1.8733948751746772e+00 
        </Neuron>
        <Neuron NSynapses="14">
          7.6644120080277001e-01 3.2275377485331591e-01 -1.9595069723987730e+00 -1.5674000936550825e+00 -1.3109400192314951e+00 -8.1610797218886610e-01 2.2328217382739961e+00 -5.3705459259910049e-01 4.7380644911957787e-01 -9.3874835845410498e-01 -1.8003965183770161e+00 -4.2439602969647799e-01 -9.0351585868011108e-01 -1.4446605234002836e+00 
        </Neuron>
        <Neuron NSynapses="14">
          7.1311937370757272e-01 -1.4043915418497388e+00 -1.2166262844585451e+00 1.8517085910982134e+00 2.0009500215477083e-01 -7.7407795202383389e-01 9.7167046225676978e-01 -1.7172779255779702e+00 1.5065781117014014e+00 5.9217176525271453e-01 -1.2411508694012714e+00 3.2964934233037979e-02 -8.6123338463296853e-02 -4.7132082143058029e-01 
        </Neuron>
        <Neuron NSynapses="14">
          7.8537935345341300e-03 1.7738937240337112e+00 1.3339850721138311e+00 1.8299878364070310e+00 -9.9230170490136638e-01 9.2681466148923398e-03 -2.2163471900439600e+00 4.6596574666574037e-01 -1.0698375516258027e+00 -2.7025746752761139e+00 -1.2381785282753499e+00 2.2046541738014742e+00 7.9569616785561315e-01 1.4993248216528685e+00 
        </Neuron>
        <Neuron NSynapses="14">
          3.8628339767526576e-01 -1.8773937089082077e-01 -7.0287996059961755e-01 1.6436391314913459e-01 2.3134616220089765e+00 -1.7603812207676677e+00 3.6367346609916040e-01 -2.0187831869566177e+00 -2.0011820586433865e-01 1.1809479240122850e-01 6.0791347441139088e-01 -1.4857657990514586e-01 1.2530323617350432e+00 8.5714333233477646e-01 
        </Neuron>
        <Neuron NSynapses="14">
          6.3751965173703151e-01 -6.5089724753361750e-02 -9.3849575799679719e-01 -1.5554356026201626e+00 -1.4828194944863395e+00 5.2044126637773214e-01 -1.8528137582822811e-02 -1.0345239624992357e+00 8.0875359214469256e-01 -2.2118128196662137e+00 6.0040825603385077e-02 -3.2650261059204000e-01 1.5136127111677733e+00 -8.1569376907420499e-01 
        </Neuron>
        <Neuron NSynapses="14">
          -1.5910275813634136e+00 -5.5414138724120121e-01 -9.3290840991056634e-01 -1.4057350654845584e+00 1.4669696909051584e+00 -1.5829833976038608e+00 -1.6315389492244297e+00 1.1368635781042078e+00 8.7280113239624058e-01 -5.8817011442379184e-02 -9.6814210896732944e-01 4.0307443160456802e-01 1.7592182674549044e+00 2.3092154785988553e-01 
        </Neuron>
        <Neuron NSynapses="14">
          -8.6320305942387487e-01 -6.9488341328912051e-01 -1.7362571450861264e+00 7.0003145182016446e-01 9.2829147636840625e-01 8.8213451630065939e-03 4.8915698772623445e-01 7.6007611634294137e-01 1.6356330092004570e+00 -9.7821595466086597e-01 1.1844305940319537e+00 6.5956556381871867e-01 -1.8947903177551026e+00 -1.5422739245878489e-01 
        </Neuron>
        <Neuron NSynapses="14">
          -9.1959973022860741e-01 9.7863802349778117e-01 4.6898106241049592e-01 8.6652950341625401e-01 1.9167446079335544e+00 -2.7330653763993690e-01 1.9910227107176124e+00 1.2329092351043744e+00 1.3118968288770211e-01 -5.3040162883838415e-01 1.2862275697085535e+00 -1.4712466885685920e+00 3.9233451531683988e-01 1.6055113129507810e+00 
        </Neuron>
        <Neuron NSynapses="14">
          -1.2546356444935849e+00 -8.4623066981197315e-01 -4.7940748948092943e-02 -1.3574939284706029e+00 1.5383982476843899e-01 -1.8481254320060549e+00 -7.0141690330673856e-01 -6.2963237902204469e-02 1.8271422667725448e+00 5.5169889753373658e-01 4.9664722291951646e-01 2.9203425807691263e-01 -4.9222911248324541e-01 6.6663352719054292e-01 
        </Neuron>
        <Neuron NSynapses="14">
          1.9553562812222853e+00 -1.8892482723112409e+00 -1.3128905607503001e+00 -1.0603796236877983e+00 -1.3787317120445772e+00 -1.4901277226357841e+00 -1.3856166282381692e+00 5.5142284765615979e-01 1.4001913565804572e-01 -1.5138192027285935e+00 -2.2904519109024761e+00 4.8063339546218065e-01 2.1371396722908971e+00 1.6347094859641691e+00 
        </Neuron>
        <Neuron NSynapses="14">
          1.4241551612062979e+00 -6.4236509722490898e-01 -1.9384548629579912e+00 -6.1342695385746757e-02 -1.1614215097927747e+00 -1.5895177791184478e+00 -1.4659123345076188e+00 -1.4393913368425368e-02 -1.1701663388648695e+00 5.4446672988403499e-01 1.4091115852141873e+00 5.3042051559780945e-01 -7.7003852352001279e-01 -5.2125956353422598e-01 
        </Neuron>
        <Neuron NSynapses="14">
          2.1936001413573161e+00 -6.5148573849872515e-01 3.4811630931934628e-01 1.4700450718176947e+00 1.9597721993275197e+00 -1.3225989859488343e+00 1.0897687286434807e+00 -2.4000179821084884e+00 2.0783736301281621e+00 2.3571954330078335e+00 -3.2265872839697923e-01 -9.5181182747218784e-01 4.1689993387535562e-01 -5.7832824741740307e-01 
        </Neuron>
      </Layer>
      <Layer Index="2" NNeurons="15">
        <Neuron NSynapses="1">
          4.4768873550765292e-01 
        </Neuron>
        <Neuron NSynapses="1">
          -6.3384030907622813e-01 
        </Neuron>
        <Neuron NSynapses="1">
          -8.8041102220285516e-01 
        </Neuron>
        <Neuron NSynapses="1">
          -1.3679954273534027e+00 
        </Neuron>
        <Neuron NSynapses="1">
          -1.2327046466532092e-02 
        </Neuron>
        <Neuron NSynapses="1">
          1.5969062883781642e+00 
        </Neuron>
        <Neuron NSynapses="1">
          1.2490521991798200e+00 
        </Neuron>
        <Neuron NSynapses="1">
          2.3367310064956934e-01 
        </Neuron>
        <Neuron NSynapses="1">
          -2.2711614431615725e+00 
        </Neuron>
        <Neuron NSynapses="1">
          3.9504199928656947e-01 
        </Neuron>
        <Neuron NSynapses="1">
          1.0093838100195180e+00 
        </Neuron>
        <Neuron NSynapses="1">
          -1.7426427990725366e+00 
        </Neuron>
        <Neuron NSynapses="1">
          8.2180809787419973e-01 
        </Neuron>
        <Neuron NSynapses="1">
          -4.4517287339057249e-01 
        </Neuron>
        <Neuron NSynapses="1">
          6.3662406316410836e-01 
        </Neuron>
      </Layer>
      <Layer Index="3" NNeurons="1">
        <Neuron NSynapses="0"/>
      </Layer>
    </Layout>
  </Weights>
</MethodSetup>
