<?xml version="1.0"?>
<MethodSetup Method="MLP::MLP">
  <GeneralInfo>
    <Info name="TMVA Release" value="4.1.2 [262402]"/>
    <Info name="ROOT Release" value="5.32/00 [335872]"/>
    <Info name="Creator" value="kkousour"/>
    <Info name="Date" value="Thu Mar 28 14:13:38 2013"/>
    <Info name="Host" value="Linux lxbuild168.cern.ch 2.6.18-308.16.1.el5 #1 SMP Thu Oct 4 14:02:28 CEST 2012 x86_64 x86_64 x86_64 GNU/Linux"/>
    <Info name="Dir" value="/afs/cern.ch/work/k/kkousour/private/CMG_V5_13_0/CMGTools/CMSSW_5_3_7_patch4/src/KKousour/CMGAnalysis/test/scripts"/>
    <Info name="Training events" value="87316"/>
    <Info name="TrainingTime" value="1.40754376e+04"/>
    <Info name="AnalysisType" value="Regression"/>
  </GeneralInfo>
  <Options>
    <Option name="NCycles" modified="Yes">700</Option>
    <Option name="HiddenLayers" modified="Yes">N,N-1</Option>
    <Option name="NeuronType" modified="No">sigmoid</Option>
    <Option name="RandomSeed" modified="No">1</Option>
    <Option name="EstimatorType" modified="No">MSE</Option>
    <Option name="NeuronInputType" modified="No">sum</Option>
    <Option name="V" modified="No">False</Option>
    <Option name="VerbosityLevel" modified="No">Default</Option>
    <Option name="VarTransform" modified="Yes">Norm</Option>
    <Option name="H" modified="No">False</Option>
    <Option name="CreateMVAPdfs" modified="No">False</Option>
    <Option name="IgnoreNegWeightsInTraining" modified="No">False</Option>
    <Option name="TrainingMethod" modified="Yes">BFGS</Option>
    <Option name="LearningRate" modified="No">2.000000e-02</Option>
    <Option name="DecayRate" modified="No">1.000000e-02</Option>
    <Option name="TestRate" modified="Yes">5</Option>
    <Option name="EpochMonitoring" modified="No">False</Option>
    <Option name="Sampling" modified="No">1.000000e+00</Option>
    <Option name="SamplingEpoch" modified="No">1.000000e+00</Option>
    <Option name="SamplingImportance" modified="No">1.000000e+00</Option>
    <Option name="SamplingTraining" modified="No">True</Option>
    <Option name="SamplingTesting" modified="No">False</Option>
    <Option name="ResetStep" modified="No">50</Option>
    <Option name="Tau" modified="No">3.000000e+00</Option>
    <Option name="BPMode" modified="No">sequential</Option>
    <Option name="BatchSize" modified="No">-1</Option>
    <Option name="ConvergenceImprove" modified="No">1.000000e-30</Option>
    <Option name="ConvergenceTests" modified="No">-1</Option>
    <Option name="UseRegulator" modified="No">False</Option>
    <Option name="UpdateLimit" modified="No">10000</Option>
    <Option name="CalculateErrors" modified="No">False</Option>
    <Option name="WeightRange" modified="No">1.000000e+00</Option>
  </Options>
  <Variables NVar="15">
    <Variable VarIndex="0" Expression="jetBtag" Label="jetBtag" Title="jetBtag" Unit="" Internal="jetBtag" Type="F" Min="-1.00000000e+01" Max="1.00000000e+00"/>
    <Variable VarIndex="1" Expression="jetPt" Label="jetPt" Title="jetPt" Unit="" Internal="jetPt" Type="F" Min="2.00074406e+01" Max="7.87359558e+02"/>
    <Variable VarIndex="2" Expression="jetEta" Label="jetEta" Title="jetEta" Unit="" Internal="jetEta" Type="F" Min="-4.06704473e+00" Max="4.51863527e+00"/>
    <Variable VarIndex="3" Expression="jetMetPhi" Label="jetMetPhi" Title="jetMetPhi" Unit="" Internal="jetMetPhi" Type="F" Min="5.99622726e-05" Max="3.14155507e+00"/>
    <Variable VarIndex="4" Expression="jetChf" Label="jetChf" Title="jetChf" Unit="" Internal="jetChf" Type="F" Min="0.00000000e+00" Max="1.00000000e+00"/>
    <Variable VarIndex="5" Expression="jetPhf" Label="jetPhf" Title="jetPhf" Unit="" Internal="jetPhf" Type="F" Min="0.00000000e+00" Max="8.92404675e-01"/>
    <Variable VarIndex="6" Expression="jetNhf" Label="jetNhf" Title="jetNhf" Unit="" Internal="jetNhf" Type="F" Min="0.00000000e+00" Max="9.54141438e-01"/>
    <Variable VarIndex="7" Expression="jetElf" Label="jetElf" Title="jetElf" Unit="" Internal="jetElf" Type="F" Min="0.00000000e+00" Max="9.62029397e-01"/>
    <Variable VarIndex="8" Expression="jetMuf" Label="jetMuf" Title="jetMuf" Unit="" Internal="jetMuf" Type="F" Min="0.00000000e+00" Max="7.80903637e-01"/>
    <Variable VarIndex="9" Expression="jetPtD" Label="jetPtD" Title="jetPtD" Unit="" Internal="jetPtD" Type="F" Min="1.40471086e-01" Max="9.66620922e-01"/>
    <Variable VarIndex="10" Expression="jetVtxPt" Label="jetVtxPt" Title="jetVtxPt" Unit="" Internal="jetVtxPt" Type="F" Min="0.00000000e+00" Max="5.90465454e+02"/>
    <Variable VarIndex="11" Expression="jetVtx3dL" Label="jetVtx3dL" Title="jetVtx3dL" Unit="" Internal="jetVtx3dL" Type="F" Min="0.00000000e+00" Max="1.43735781e+01"/>
    <Variable VarIndex="12" Expression="jetVtx3deL" Label="jetVtx3deL" Title="jetVtx3deL" Unit="" Internal="jetVtx3deL" Type="F" Min="0.00000000e+00" Max="2.50442314e+00"/>
    <Variable VarIndex="13" Expression="met" Label="met" Title="met" Unit="" Internal="met" Type="F" Min="8.90673697e-02" Max="2.98867889e+02"/>
    <Variable VarIndex="14" Expression="rho" Label="rho" Title="rho" Unit="" Internal="rho" Type="F" Min="0.00000000e+00" Max="5.79467316e+01"/>
  </Variables>
  <Spectators NSpec="0"/>
  <Classes NClass="1">
    <Class Name="Regression" Index="0"/>
  </Classes>
  <Targets NTrgt="1">
    <Target TargetIndex="0" Expression="jetPrtPt" Label="jetPrtPt" Title="jetPrtPt" Unit="" Internal="jetPrtPt" Type="F" Min="1.32756140e-02" Max="7.51003540e+02"/>
  </Targets>
  <Transformations NTransformations="1">
    <Transform Name="Normalize">
      <Selection>
        <Input NInputs="16">
          <Input Type="Variable" Label="jetBtag" Expression="jetBtag"/>
          <Input Type="Variable" Label="jetPt" Expression="jetPt"/>
          <Input Type="Variable" Label="jetEta" Expression="jetEta"/>
          <Input Type="Variable" Label="jetMetPhi" Expression="jetMetPhi"/>
          <Input Type="Variable" Label="jetChf" Expression="jetChf"/>
          <Input Type="Variable" Label="jetPhf" Expression="jetPhf"/>
          <Input Type="Variable" Label="jetNhf" Expression="jetNhf"/>
          <Input Type="Variable" Label="jetElf" Expression="jetElf"/>
          <Input Type="Variable" Label="jetMuf" Expression="jetMuf"/>
          <Input Type="Variable" Label="jetPtD" Expression="jetPtD"/>
          <Input Type="Variable" Label="jetVtxPt" Expression="jetVtxPt"/>
          <Input Type="Variable" Label="jetVtx3dL" Expression="jetVtx3dL"/>
          <Input Type="Variable" Label="jetVtx3deL" Expression="jetVtx3deL"/>
          <Input Type="Variable" Label="met" Expression="met"/>
          <Input Type="Variable" Label="rho" Expression="rho"/>
          <Input Type="Target" Label="jetPrtPt" Expression="jetPrtPt"/>
        </Input>
        <Output NOutputs="16">
          <Output Type="Variable" Label="jetBtag" Expression="jetBtag"/>
          <Output Type="Variable" Label="jetPt" Expression="jetPt"/>
          <Output Type="Variable" Label="jetEta" Expression="jetEta"/>
          <Output Type="Variable" Label="jetMetPhi" Expression="jetMetPhi"/>
          <Output Type="Variable" Label="jetChf" Expression="jetChf"/>
          <Output Type="Variable" Label="jetPhf" Expression="jetPhf"/>
          <Output Type="Variable" Label="jetNhf" Expression="jetNhf"/>
          <Output Type="Variable" Label="jetElf" Expression="jetElf"/>
          <Output Type="Variable" Label="jetMuf" Expression="jetMuf"/>
          <Output Type="Variable" Label="jetPtD" Expression="jetPtD"/>
          <Output Type="Variable" Label="jetVtxPt" Expression="jetVtxPt"/>
          <Output Type="Variable" Label="jetVtx3dL" Expression="jetVtx3dL"/>
          <Output Type="Variable" Label="jetVtx3deL" Expression="jetVtx3deL"/>
          <Output Type="Variable" Label="met" Expression="met"/>
          <Output Type="Variable" Label="rho" Expression="rho"/>
          <Output Type="Target" Label="jetPrtPt" Expression="jetPrtPt"/>
        </Output>
      </Selection>
      <Class ClassIndex="0">
        <Ranges>
          <Range Index="0" Min="-1.0000000000000000e+01" Max="1.0000000000000000e+00"/>
          <Range Index="1" Min="2.0007440567016602e+01" Max="7.8735955810546875e+02"/>
          <Range Index="2" Min="-4.0670447349548340e+00" Max="4.5186352729797363e+00"/>
          <Range Index="3" Min="5.9962272644042969e-05" Max="3.1415550708770752e+00"/>
          <Range Index="4" Min="0.0000000000000000e+00" Max="1.0000000000000000e+00"/>
          <Range Index="5" Min="0.0000000000000000e+00" Max="8.9240467548370361e-01"/>
          <Range Index="6" Min="0.0000000000000000e+00" Max="9.5414143800735474e-01"/>
          <Range Index="7" Min="0.0000000000000000e+00" Max="9.6202939748764038e-01"/>
          <Range Index="8" Min="0.0000000000000000e+00" Max="7.8090363740921021e-01"/>
          <Range Index="9" Min="1.4047108590602875e-01" Max="9.6662092208862305e-01"/>
          <Range Index="10" Min="0.0000000000000000e+00" Max="5.9046545410156250e+02"/>
          <Range Index="11" Min="0.0000000000000000e+00" Max="1.4373578071594238e+01"/>
          <Range Index="12" Min="0.0000000000000000e+00" Max="2.5044231414794922e+00"/>
          <Range Index="13" Min="8.9067369699478149e-02" Max="2.9886788940429688e+02"/>
          <Range Index="14" Min="0.0000000000000000e+00" Max="5.7946731567382812e+01"/>
          <Range Index="15" Min="1.3275614008307457e-02" Max="7.5100354003906250e+02"/>
        </Ranges>
      </Class>
    </Transform>
  </Transformations>
  <MVAPdfs/>
  <Weights>
    <Layout NLayers="4">
      <Layer Index="0" NNeurons="16">
        <Neuron NSynapses="15">
          -8.3693243941587753e-02 2.0144506927848602e+00 8.3958770415494433e-01 2.1997775749427677e+00 -1.6912375830156803e+00 -2.7349490430475054e+00 9.7564439523864038e-02 2.1596062692857703e+00 -1.5831123232707152e+00 -1.2766847148618008e+00 -2.0393070907071817e+00 -3.4525477702359608e-01 -4.4008133724028159e-01 -1.4250557950533091e-01 -8.5452605930887371e-01 
        </Neuron>
        <Neuron NSynapses="15">
          -1.6062896788854553e-01 -6.3166555839950311e-01 2.6200805938557696e+00 -6.5897049274924679e-01 1.2838976186878983e+00 5.5041722772531776e-01 -2.0457601558017293e+00 6.3504295698018498e-01 1.1838973623888365e+00 -2.8466016415850572e+00 4.1779638121822778e-03 1.7796528519512476e+00 -1.5093312762322957e+00 -2.9401991154586198e+00 7.7998525465007007e-01 
        </Neuron>
        <Neuron NSynapses="15">
          1.4612421539155988e-02 1.6122324903880789e+00 3.1794143678363879e-01 1.5230716732798938e-01 4.4182019539743439e-01 -2.3787661684453654e-01 1.4122383951690848e-02 2.1748666329328961e+00 -4.0836432094351269e-02 -8.2778316384811215e-02 1.0357607837506693e+00 2.7271918297759087e-02 1.5502431871271447e+00 3.2630785836650306e-01 -7.8040838466434825e-01 
        </Neuron>
        <Neuron NSynapses="15">
          -1.2241462056702737e+00 6.8141989026904992e-01 -2.7294761322903266e-01 8.4685918442291752e-01 1.1507752242955920e+00 9.0004042168891829e-01 8.9779865151269150e-02 -7.6352497198106728e-01 1.4271167142661303e+00 -8.7173970612021789e-01 -5.2837182059955834e-01 -1.5704435574704556e+00 -1.5767991938335941e+00 8.3259014585675883e-01 7.3772964534110175e-01 
        </Neuron>
        <Neuron NSynapses="15">
          -1.2245088505024913e+00 1.8164688095562714e-01 -4.5685584237773547e-01 5.9274488774157308e-01 2.3520743467903157e-01 -1.5288727867974136e-01 -5.4470356359826042e-02 -1.3044243559996433e+00 3.0787520968886006e-01 -6.3460216628721577e-01 -7.0901543026524727e-01 1.8022691525909457e-01 4.5167300070475136e-01 1.7454895991725206e-01 1.1080444734312296e+00 
        </Neuron>
        <Neuron NSynapses="15">
          -3.4976696388517858e-01 -1.9111533624782495e+00 -6.3411456050628012e-01 5.2293422543752355e-01 1.8576261975721017e-01 1.4382150466515264e+00 -1.2523783118879964e-01 7.3820897474972857e-01 1.7286850620325417e-01 -5.4687559435595523e-01 1.7161586485826504e-02 -2.1370677073711073e-02 9.2244338866219137e-03 -4.7212997475284596e-02 -1.1098476578545247e+00 
        </Neuron>
        <Neuron NSynapses="15">
          -5.0697134750307482e-01 -2.9365187541817639e-01 -3.9608843187499804e-01 -2.0825061437625894e+00 -5.2157359456815389e-01 2.1019118158328434e+00 -2.5763093637474754e-01 -1.4474993058951966e+00 -2.5023057724584435e-01 -7.5527241092492148e-01 -1.9772037691745874e+00 -5.9915770611848695e-01 9.2470572908762294e-01 8.0976904091395496e-01 -9.4553945047597410e-01 
        </Neuron>
        <Neuron NSynapses="15">
          1.3354764621332160e+00 -1.2487205103221855e+00 -8.6057134217303521e-01 -7.6399095408055073e-01 3.3041177167339930e-01 -1.2032994923921305e+00 -2.9127275845710993e-01 -2.5033059601149765e-01 8.6802716918779249e-02 -3.3476608130424712e-01 1.3945175354100663e+00 8.1081611090275812e-03 -3.5178725658662030e-01 1.6657639356688289e-01 -5.6790765733461390e-01 
        </Neuron>
        <Neuron NSynapses="15">
          -2.2808303888232970e+00 -1.4058484233998472e-01 -6.3582165250605482e-01 1.0516341579934543e+00 -4.8570933534657529e-01 5.5216834159615924e-01 -3.0114886837015487e-01 -5.6610928216324174e-01 -1.2857418555909774e+00 1.6313308260360548e-01 4.7591741587874969e-01 -5.3726422145597884e-02 2.6457322912676173e-01 -1.1750855985444144e+00 6.5800688243379757e-02 
        </Neuron>
        <Neuron NSynapses="15">
          8.9628842935460806e-01 1.6942630898377657e+00 -9.6312265185486612e-01 -2.0070855251121112e-02 9.0392918024454905e-01 1.6909326208402506e+00 -8.6487153187161950e-02 -1.4494616117220445e+00 -4.1884223939388343e-01 -9.8542521214399947e-01 1.6621954150882245e+00 1.0741247143881083e+00 -5.5174692217681365e-01 -9.6520774361609263e-01 2.9946538351337115e-01 
        </Neuron>
        <Neuron NSynapses="15">
          -1.4819713685338123e+00 2.5151686890344460e-01 1.1431027227169368e+00 -1.2862807080677394e+00 -1.0037756272458918e+00 8.4810618874079879e-01 4.2101249190004802e-01 2.8957173761408356e-02 1.3834263688061104e+00 -1.1706535031694905e+00 1.7358127349205188e+00 1.0603248404384669e+00 7.0390774198089778e-01 8.2512230832321093e-02 1.5357767696237283e+00 
        </Neuron>
        <Neuron NSynapses="15">
          -9.0858116858418092e-01 -9.9266816594553209e-01 -6.0191239986624429e-02 -1.4895347938196239e+00 -5.7495619446093871e-01 1.8845270262878548e+00 -1.0034185878180518e-01 -8.2550029101694034e-01 -5.3708361558051356e-03 1.0555503847526955e+00 -1.7076322000992299e+00 -5.4744807163611929e-02 -2.7998265929263536e-02 -4.3613805035379527e-01 -1.1483626004576759e+00 
        </Neuron>
        <Neuron NSynapses="15">
          -1.4994941865898790e+00 7.6284440749092364e-01 9.4410439807588520e-01 -2.3399078406796807e+00 -7.5904620114173560e-01 -1.3739018398433667e-01 1.5478531131453235e-01 1.1740969456222536e+00 -1.8517715578703246e-02 -4.6548724447185247e-01 -7.8310508991202010e-01 7.9246593631646323e-01 1.9280368284514655e+00 3.5024248477273284e-01 6.8787307517282270e-01 
        </Neuron>
        <Neuron NSynapses="15">
          -1.3690352076665160e+00 -2.1940967646055776e+00 1.0801207328018714e+00 -2.0765792120368654e-01 -1.9933841914462216e+00 -2.5884092579793561e-01 -2.8936547479335312e-01 -3.4717082428264356e-01 -1.9400064371983909e+00 2.1699229221179053e+00 8.2645512821469613e-01 2.6206707268835201e+00 -9.9433799590705141e-01 1.6015819309311898e+00 1.3796925686262476e+00 
        </Neuron>
        <Neuron NSynapses="15">
          3.9669527982549407e-01 -2.8890899075000831e-01 -1.6862924317002306e-01 -1.1973049157992950e+00 1.2672543783384724e+00 1.0668367057526327e+00 5.8509299578085240e-02 -2.8805958528211195e-01 5.9890738864099879e-01 -7.9703035527509514e-01 -9.8972637031708577e-01 -5.2444611536051666e-01 -1.8182902721541511e-01 2.4192700306229328e-01 1.8362677680401203e+00 
        </Neuron>
        <Neuron NSynapses="15">
          -9.4347271635140351e-01 1.1668530491958040e+00 1.9893009675566919e+00 -1.0037777078962424e+00 4.9413445608890361e-01 5.0493552014258547e-01 -1.9258556668141151e+00 1.6331535788522746e+00 -1.3227334689739427e+00 1.5784690745996468e+00 -2.0962915802852469e+00 4.6241673600233951e-01 -1.0359782491178682e+00 -1.7409297258478824e+00 -1.6331360226771241e+00 
        </Neuron>
      </Layer>
      <Layer Index="1" NNeurons="16">
        <Neuron NSynapses="14">
          -1.5672708862986058e+00 -5.1776243524251420e-01 -1.8749795951429145e+00 -1.0593868722063786e+00 -1.9827166119194617e+00 -2.2668573917901589e-02 -1.4476864384646790e+00 -2.1168421897848653e+00 1.6641781223198628e+00 -4.1446117221137252e-01 2.3532980556785077e-01 -1.1524323217539771e+00 3.4052887101889701e-01 1.9834998347546653e+00 
        </Neuron>
        <Neuron NSynapses="14">
          1.3905497240645102e+00 -9.7115644151180114e-01 -1.4821779619838258e+00 -8.9538389328523904e-01 -8.9808042530647358e-01 -1.6484703905341755e+00 -9.9835043566633350e-03 -3.9968011751344290e-02 2.1901563229736176e+00 1.0695861501506235e-01 5.1228368816224090e-01 -3.5267823144597099e-01 -1.7420847386629819e+00 1.5727724580796958e+00 
        </Neuron>
        <Neuron NSynapses="14">
          1.5975117173949258e+00 -7.3918537552140740e-01 -1.0694820692715274e+00 4.9598597577595738e-01 1.4241115862474150e+00 1.3079225810570574e+00 1.4430996970426022e-01 -4.0441512021303055e-01 1.1227267529422282e+00 1.2173150679637788e+00 1.1521425266993970e+00 -2.3631037482519790e-01 8.4448173711709568e-02 -5.9303260055963292e-01 
        </Neuron>
        <Neuron NSynapses="14">
          -1.0900023437793389e+00 -6.4805270427091288e-01 -1.7442306560477185e+00 -1.2814844032240098e+00 -1.3777186842190730e+00 1.6706222673336826e+00 -1.8675735911475573e+00 1.2268463945468577e+00 -1.2463472500442967e+00 1.6090895913717003e+00 -7.4707384576685110e-01 -2.3170973275869525e-01 8.9434961841335603e-01 -1.5418306091607408e+00 
        </Neuron>
        <Neuron NSynapses="14">
          1.9720822257803594e-01 5.8410545019270677e-01 -1.9532056091090786e+00 -1.5134557017030874e+00 -1.7117908791112579e+00 -4.2624883098944066e-01 2.0181477614071297e+00 -4.2707282353668680e-01 3.6208894642331507e-01 -7.9932282387310405e-01 -1.0423327417430328e+00 -4.2530843228744936e-01 -8.9528501363917323e-01 -1.3490291517785855e+00 
        </Neuron>
        <Neuron NSynapses="14">
          6.1601368076555074e-01 -1.3736646707208289e+00 -1.2143461146517156e+00 2.0683687009660519e+00 2.1127099063540228e-01 -8.4403876141264211e-01 1.4562374225475097e+00 -1.6171896778005048e+00 1.5438354078952796e+00 7.2185749598980387e-01 -1.0767464681147658e+00 -3.0700338139740790e-01 1.0768390230154040e-01 -7.8305148072644037e-01 
        </Neuron>
        <Neuron NSynapses="14">
          1.9577134378919749e-02 1.6349636084250583e+00 1.3349712960078379e+00 1.9617065722552141e+00 -1.7948151391996610e+00 -6.5185199588200321e-02 -2.2110421982790878e+00 5.8304538918511484e-01 -1.1318256261614545e+00 -2.3805374822090291e+00 -7.6725469074016173e-02 2.0801081011870535e+00 5.2851805959847054e-01 1.3334532055913684e+00 
        </Neuron>
        <Neuron NSynapses="14">
          3.5714889194470323e-01 -2.9086308122565058e-01 -7.0850002883163421e-01 2.4097250395094941e-01 1.9544275531849256e+00 -1.3268514957805169e+00 1.7158044996263139e-01 -1.9280723551217211e+00 -4.0521368551819337e-01 5.3013948138918487e-01 3.2254883974071386e-01 -3.1397800765408557e-01 1.1122854283433430e+00 1.5218373834084151e+00 
        </Neuron>
        <Neuron NSynapses="14">
          5.6791267755248331e-01 -1.6707158415662277e-01 -9.3993889405113895e-01 -1.6314293180646959e+00 -1.5489059337077931e+00 6.6810004714700510e-01 -6.7674606782494962e-01 -8.8397890265441137e-01 7.9244247210397412e-01 -1.4279541404463560e+00 -9.2134005164695021e-01 -9.1178223235344535e-01 1.0588471764621943e+00 -8.5049249976532715e-01 
        </Neuron>
        <Neuron NSynapses="14">
          -1.6911927743011543e+00 -6.0126579313438788e-01 -9.3996399550869114e-01 -1.2273641597487914e+00 9.5107123156463258e-01 -1.1583983354495286e+00 -1.4071165976019735e+00 1.2746316660461687e+00 7.3240986012168274e-01 6.3161035909880670e-01 3.7969911043514182e-01 1.0159272296681736e+00 1.9235865461334583e+00 6.7757830229175342e-01 
        </Neuron>
        <Neuron NSynapses="14">
          -8.3276687077483147e-01 -6.8693573250464657e-01 -1.7365930459136141e+00 9.4650768749155167e-01 8.1925844441775997e-01 -2.3684278618730292e-02 9.5209966460407802e-01 8.3869416300930588e-01 1.6410791948127605e+00 -7.0691466704532013e-01 1.8608353520105065e+00 2.7153874146200868e-01 -1.9156158550326485e+00 -3.2018920705452980e-01 
        </Neuron>
        <Neuron NSynapses="14">
          -8.1072639120712275e-01 9.4999441937010742e-01 4.6422847910778159e-01 7.1563561370616713e-01 1.9048276638565675e+00 -3.6367529956958222e-01 1.9502875347692419e+00 1.3965450995121866e+00 7.9646935396150545e-02 -4.4448400377024078e-01 1.8294136237826999e+00 -2.0062579454935796e+00 4.2365926146234850e-01 1.5945543894241050e+00 
        </Neuron>
        <Neuron NSynapses="14">
          -9.5705967003281611e-01 -8.1618591356499026e-01 -4.3871520682881325e-02 -1.3135936889862292e+00 3.1484185067333181e-01 -1.7537998082261237e+00 -5.4445099127442653e-01 1.1441191433209971e-01 1.7532861015370800e+00 7.3483468584161893e-01 7.9826664690816196e-01 5.1163573406086016e-01 3.1051558627059905e-04 4.7599908415524450e-01 
        </Neuron>
        <Neuron NSynapses="14">
          2.1671560798766469e+00 -1.8959645251878494e+00 -1.3029011095438205e+00 -1.0094454661469017e+00 -1.4197860044410364e+00 -1.8590080140447671e+00 -1.5508562755440602e+00 8.5616695983185742e-01 -4.9792932168448586e-02 -2.1325310831553668e+00 -1.9694338452297093e+00 3.2528413320250610e-01 1.8474137249033353e+00 1.9095305792273174e+00 
        </Neuron>
        <Neuron NSynapses="14">
          1.1266052144848917e+00 -6.4793528618642504e-01 -1.9405647307514524e+00 -4.2365930806580721e-01 -1.0552501172900937e+00 -1.6257511793767687e+00 -4.2184500058738639e-01 3.5157749084201673e-01 -1.3493535354302697e+00 1.3630022710826759e+00 1.1553701436098134e+00 2.5718789434018430e-01 -5.7604388738169876e-01 -5.2292902255585461e-01 
        </Neuron>
        <Neuron NSynapses="14">
          1.9242870637797562e+00 -6.7587621475931636e-01 3.4678747679797289e-01 1.7046321329626779e+00 1.5844630749952482e+00 -1.0841778066016621e+00 1.0935984712325924e+00 -2.1863232606335909e+00 1.9511421832271580e+00 2.3115169188622784e+00 1.5440901972567186e-01 -8.0100741408340492e-01 3.4505151052508010e-01 -2.5824405020588603e-01 
        </Neuron>
      </Layer>
      <Layer Index="2" NNeurons="15">
        <Neuron NSynapses="1">
          4.2270171714726212e-01 
        </Neuron>
        <Neuron NSynapses="1">
          -3.5803428058528247e-01 
        </Neuron>
        <Neuron NSynapses="1">
          -8.7883710010433747e-01 
        </Neuron>
        <Neuron NSynapses="1">
          -1.4941017012101796e+00 
        </Neuron>
        <Neuron NSynapses="1">
          4.9476003273502678e-01 
        </Neuron>
        <Neuron NSynapses="1">
          1.7079045578178664e+00 
        </Neuron>
        <Neuron NSynapses="1">
          9.9265614390242796e-01 
        </Neuron>
        <Neuron NSynapses="1">
          1.3392958233566850e+00 
        </Neuron>
        <Neuron NSynapses="1">
          -2.0207217891026912e+00 
        </Neuron>
        <Neuron NSynapses="1">
          3.7150035135234910e-01 
        </Neuron>
        <Neuron NSynapses="1">
          2.9664499331692917e-01 
        </Neuron>
        <Neuron NSynapses="1">
          -1.6111888537966308e+00 
        </Neuron>
        <Neuron NSynapses="1">
          1.9870895919902104e-01 
        </Neuron>
        <Neuron NSynapses="1">
          -2.9073638383730072e-01 
        </Neuron>
        <Neuron NSynapses="1">
          9.5488498107889885e-01 
        </Neuron>
      </Layer>
      <Layer Index="3" NNeurons="1">
        <Neuron NSynapses="0"/>
      </Layer>
    </Layout>
  </Weights>
</MethodSetup>
